{"ip":0,"fr":5,"v":"5.1.20","assets":[],"layers":[{"ty":4,"nm":"yogasitorange","ip":0,"st":0,"ind":1,"hix":1,"ks":{"o":{"a":0,"k":100},"or":{"a":0,"k":[0,0,0]},"a":{"a":0,"k":[200,200,0]},"p":{"s":true,"x":{"a":0,"k":277},"y":{"a":0,"k":200}},"rx":{"a":0,"k":0},"ry":{"a":0,"k":0},"rz":{"a":0,"k":0},"s":{"a":0,"k":[95,95]}},"shapes":[{"ty":"gr","nm":"yogasitorange shape group","it":[{"ty":"sh","ks":{"a":0,"k":{"c":false,"v":[[187.175,9.337],[181.169,47.007999999999996],[145.455,80.454],[102.727,114.54499999999999],[176.925,139.56199999999998],[181.806,124.84999999999998],[168.83700000000002,95.12499999999997],[190.758,70.33399999999997],[217.74900000000002,107.33799999999997],[204.60100000000003,149.26399999999995],[186.47700000000003,172.90599999999995],[154.68700000000004,179.13299999999995],[112.12300000000005,152.68099999999995],[75.52300000000005,121.53099999999995],[90.05000000000005,100.91799999999995],[124.93100000000005,79.49299999999995],[170.47900000000004,49.48899999999995],[175.37900000000005,27.40899999999995],[187.175,9.337],[192.269,41.277],[209.077,63.169],[251.897,87.789],[281.847,107.756],[292.81899999999996,121.531],[259.77599999999995,148.473],[232.76399999999995,167.94],[203.81299999999996,200.486],[193.45099999999996,247.105],[194.87999999999997,314.493],[150.86799999999997,348.113],[70.29199999999997,342.342],[28.297999999999973,358.76099999999997],[43.85999999999997,387.15099999999995],[110.73599999999998,389.87899999999996],[186.62899999999996,361.21899999999994],[248.32199999999995,343.4699999999999],[301.28399999999993,349.75299999999993],[326.79799999999994,380.17299999999994],[284.73799999999994,396.7269999999999],[240.13299999999995,392.6119999999999],[181.71399999999994,379.7819999999999]],"i":[[0,0],[4.88300000000001,-14.778999999999996],[0,0],[8.64500000000001,-14.468999999999994],[-27.938000000000017,16.11100000000002],[4.717000000000013,2.734000000000009],[-2.1200000000000045,13.964000000000013],[-7.057999999999993,0.465999999999994],[-0.0700000000000216,-20.56899999999999],[9.835999999999984,-13.676999999999992],[8.847000000000008,-9.074999999999989],[4.371999999999986,1.9110000000000014],[5.185000000000002,3.8189999999999884],[3.024000000000001,4.75],[-1.9129999999999967,1.9069999999999965],[-5.0789999999999935,2.4009999999999962],[-10.522999999999996,13.812000000000005],[-4.5090000000000146,6.199999999999996],[0,0],[-5.266999999999996,-9.974],[-3.2750000000000057,-1.6359999999999957],[-3.8359999999999843,-2.6270000000000095],[-2.4639999999999986,-1.9080000000000013],[3.27800000000002,-6.003],[1.636000000000024,-0.8190000000000168],[2.2169999999999845,-1.7299999999999898],[8.411000000000001,-21.025999999999982],[-0.27199999999999136,-25.93100000000001],[8.932999999999993,-24.697000000000003],[25.87299999999999,-2.619000000000028],[31.576999999999998,-2.8909999999999627],[8.152000000000001,-16.418999999999983],[-15.026999999999997,-9.600999999999999],[-20.161,5.007999999999981],[-8.462999999999965,3.5470000000000255],[-13.796999999999969,1.8870000000000005],[-22.327999999999975,-6.341000000000008],[9.089999999999975,-15.524000000000001],[35.509000000000015,-4.069999999999993],[14.466999999999985,4.093999999999994],[3.2789999999999964,-1.0910000000000082]],"o":[[0,0],[-5.3700000000000045,16.253],[0,0],[-8.676999999999992,14.520999999999987],[3.3319999999999936,-1.9230000000000018],[-7.828000000000003,-4.530000000000001],[3.6049999999999898,-23.751999999999995],[22.609999999999985,-1.4920000000000044],[0.04800000000000182,11.784999999999997],[-6.634999999999991,9.221000000000004],[-9.735000000000014,9.985000000000014],[-4.364000000000004,-1.9110000000000014],[-5.188999999999993,-3.8240000000000123],[-4.158000000000001,-6.531000000000006],[1.9110000000000014,-1.9069999999999965],[21.340999999999994,-10.093999999999994],[9.615000000000009,-12.619999999999997],[5.507999999999953,-7.5749999999999496],[0,0],[6.0020000000000095,11.385999999999996],[3.2750000000000057,1.632000000000005],[15.757999999999981,10.772000000000006],[8.889999999999986,6.873000000000005],[-3.2749999999999773,6.010000000000005],[-1.636000000000024,0.8190000000000168],[-11.77000000000001,9.187000000000012],[-3.0829999999999984,7.711000000000013],[0.27899999999999636,25.938000000000017],[-6.705999999999989,18.533999999999992],[-14.937000000000012,1.5090000000000146],[-9.82,0.896000000000015],[-3.2699999999999996,6.579999999999984],[9.317999999999998,5.947999999999979],[7.391999999999996,-1.8389999999999986],[8.461999999999989,-3.548999999999978],[21.69999999999999,-2.966000000000008],[8.887999999999977,2.521000000000015],[-5.600999999999999,9.591000000000008],[-16.814999999999998,1.9309999999999832],[-14.466000000000008,-4.096000000000004],[0,0]]}}},{"ty":"st","o":{"a":0,"k":100},"c":{"a":0,"k":[0.8705882352941177,0.3411764705882353,0.15294117647058825,1]},"lc":3,"lj":1,"ml":10,"w":{"a":0,"k":1},"d":[{"n":"d","v":{"a":0,"k":1900},"nm":"0"},{"n":"g","v":{"a":0,"k":1900},"nm":"1"},{"n":"o","v":{"a":1,"k":[{"t":0,"s":[1900],"e":[0],"i":{"x":[0.515],"y":[0.955]},"o":{"x":[0.455],"y":[0.03]}},{"t":34}]},"nm":"2"}]},{"ty":"fl","o":{"a":0,"k":0},"c":{"a":0,"k":[0,0,0,0]},"r":1},{"ty":"tr","o":{"a":0,"k":100},"a":{"a":0,"k":[0,0]},"s":{"a":0,"k":[100,100]},"p":{"a":0,"k":[0,0]},"r":{"a":0,"k":0}}]}],"op":34}],"op":30,"w":550,"h":400}